digraph Tree {
node [shape=box, fontname="helvetica"] ;
edge [fontname="helvetica"] ;
0 [label="elderly_yn_1 <= 0.5\ngini = 0.372\nsamples = 27925\nvalue = [21018, 6907]"] ;
1 [label="hosp_yn_1 <= 0.5\ngini = 0.084\nsamples = 19282\nvalue = [18435, 847]"] ;
0 -> 1 [labeldistance=2.5, labelangle=45, headlabel="True"] ;
2 [label="age_group_2 <= 0.5\ngini = 0.028\nsamples = 18237\nvalue = [17980, 257]"] ;
1 -> 2 ;
3 [label="case_month_1 <= 0.5\ngini = 0.008\nsamples = 14356\nvalue = [14296, 60]"] ;
2 -> 3 ;
4 [label="case_month_4 <= 0.5\ngini = 0.008\nsamples = 14353\nvalue = [14296, 57]"] ;
3 -> 4 ;
5 [label="res_region_3 <= 0.5\ngini = 0.006\nsamples = 14201\nvalue = [14156, 45]"] ;
4 -> 5 ;
6 [label="case_month_3 <= 0.5\ngini = 0.002\nsamples = 12648\nvalue = [12633, 15]"] ;
5 -> 6 ;
7 [label="age_group_0 <= 0.5\ngini = 0.002\nsamples = 12600\nvalue = [12588, 12]"] ;
6 -> 7 ;
8 [label="case_month_19 <= 0.5\ngini = 0.001\nsamples = 12398\nvalue = [12392, 6]"] ;
7 -> 8 ;
9 [label="case_month_20 <= 0.5\ngini = 0.001\nsamples = 12194\nvalue = [12190, 4]"] ;
8 -> 9 ;
10 [label="gini = 0.0\nsamples = 11621\nvalue = [11619, 2]"] ;
9 -> 10 ;
11 [label="gini = 0.007\nsamples = 573\nvalue = [571, 2]"] ;
9 -> 11 ;
12 [label="hosp_yn_0 <= 0.5\ngini = 0.019\nsamples = 204\nvalue = [202, 2]"] ;
8 -> 12 ;
13 [label="gini = 0.057\nsamples = 34\nvalue = [33, 1]"] ;
12 -> 13 ;
14 [label="gini = 0.012\nsamples = 170\nvalue = [169, 1]"] ;
12 -> 14 ;
15 [label="case_month_24 <= 0.5\ngini = 0.058\nsamples = 202\nvalue = [196, 6]"] ;
7 -> 15 ;
16 [label="case_month_22 <= 0.5\ngini = 0.04\nsamples = 195\nvalue = [191, 4]"] ;
15 -> 16 ;
17 [label="gini = 0.031\nsamples = 191\nvalue = [188, 3]"] ;
16 -> 17 ;
18 [label="gini = 0.375\nsamples = 4\nvalue = [3, 1]"] ;
16 -> 18 ;
19 [label="hosp_yn_0 <= 0.5\ngini = 0.408\nsamples = 7\nvalue = [5, 2]"] ;
15 -> 19 ;
20 [label="gini = 0.444\nsamples = 3\nvalue = [1, 2]"] ;
19 -> 20 ;
21 [label="gini = 0.0\nsamples = 4\nvalue = [4, 0]"] ;
19 -> 21 ;
22 [label="underlying_conditions_yn_1 <= 0.5\ngini = 0.117\nsamples = 48\nvalue = [45, 3]"] ;
6 -> 22 ;
23 [label="symptom_status_-1 <= 0.5\ngini = 0.045\nsamples = 43\nvalue = [42, 1]"] ;
22 -> 23 ;
24 [label="gini = 0.0\nsamples = 35\nvalue = [35, 0]"] ;
23 -> 24 ;
25 [label="res_region_1 <= 0.5\ngini = 0.219\nsamples = 8\nvalue = [7, 1]"] ;
23 -> 25 ;
26 [label="gini = 0.0\nsamples = 7\nvalue = [7, 0]"] ;
25 -> 26 ;
27 [label="gini = 0.0\nsamples = 1\nvalue = [0, 1]"] ;
25 -> 27 ;
28 [label="hosp_yn_0 <= 0.5\ngini = 0.48\nsamples = 5\nvalue = [3, 2]"] ;
22 -> 28 ;
29 [label="gini = 0.0\nsamples = 2\nvalue = [0, 2]"] ;
28 -> 29 ;
30 [label="gini = 0.0\nsamples = 3\nvalue = [3, 0]"] ;
28 -> 30 ;
31 [label="symptom_status_-1 <= 0.5\ngini = 0.038\nsamples = 1553\nvalue = [1523, 30]"] ;
5 -> 31 ;
32 [label="case_month_7 <= 0.5\ngini = 0.012\nsamples = 1177\nvalue = [1170, 7]"] ;
31 -> 32 ;
33 [label="hosp_yn_0 <= 0.5\ngini = 0.009\nsamples = 1119\nvalue = [1114, 5]"] ;
32 -> 33 ;
34 [label="case_month_11 <= 0.5\ngini = 0.03\nsamples = 131\nvalue = [129, 2]"] ;
33 -> 34 ;
35 [label="gini = 0.016\nsamples = 123\nvalue = [122, 1]"] ;
34 -> 35 ;
36 [label="gini = 0.219\nsamples = 8\nvalue = [7, 1]"] ;
34 -> 36 ;
37 [label="case_month_20 <= 0.5\ngini = 0.006\nsamples = 988\nvalue = [985, 3]"] ;
33 -> 37 ;
38 [label="gini = 0.004\nsamples = 946\nvalue = [944, 2]"] ;
37 -> 38 ;
39 [label="gini = 0.046\nsamples = 42\nvalue = [41, 1]"] ;
37 -> 39 ;
40 [label="icu_yn_-1 <= 0.5\ngini = 0.067\nsamples = 58\nvalue = [56, 2]"] ;
32 -> 40 ;
41 [label="gini = 0.0\nsamples = 17\nvalue = [17, 0]"] ;
40 -> 41 ;
42 [label="underlying_conditions_yn_1 <= 0.5\ngini = 0.093\nsamples = 41\nvalue = [39, 2]"] ;
40 -> 42 ;
43 [label="gini = 0.114\nsamples = 33\nvalue = [31, 2]"] ;
42 -> 43 ;
44 [label="gini = 0.0\nsamples = 8\nvalue = [8, 0]"] ;
42 -> 44 ;
45 [label="case_month_12 <= 0.5\ngini = 0.115\nsamples = 376\nvalue = [353, 23]"] ;
31 -> 45 ;
46 [label="case_month_21 <= 0.5\ngini = 0.092\nsamples = 350\nvalue = [333, 17]"] ;
45 -> 46 ;
47 [label="case_month_20 <= 0.5\ngini = 0.071\nsamples = 327\nvalue = [315, 12]"] ;
46 -> 47 ;
48 [label="gini = 0.056\nsamples = 314\nvalue = [305, 9]"] ;
47 -> 48 ;
49 [label="gini = 0.355\nsamples = 13\nvalue = [10, 3]"] ;
47 -> 49 ;
50 [label="hosp_yn_0 <= 0.5\ngini = 0.34\nsamples = 23\nvalue = [18, 5]"] ;
46 -> 50 ;
51 [label="gini = 0.463\nsamples = 11\nvalue = [7, 4]"] ;
50 -> 51 ;
52 [label="gini = 0.153\nsamples = 12\nvalue = [11, 1]"] ;
50 -> 52 ;
53 [label="hosp_yn_0 <= 0.5\ngini = 0.355\nsamples = 26\nvalue = [20, 6]"] ;
45 -> 53 ;
54 [label="age_group_4 <= 0.5\ngini = 0.494\nsamples = 9\nvalue = [5, 4]"] ;
53 -> 54 ;
55 [label="gini = 0.49\nsamples = 7\nvalue = [3, 4]"] ;
54 -> 55 ;
56 [label="gini = 0.0\nsamples = 2\nvalue = [2, 0]"] ;
54 -> 56 ;
57 [label="age_group_3 <= 0.5\ngini = 0.208\nsamples = 17\nvalue = [15, 2]"] ;
53 -> 57 ;
58 [label="gini = 0.0\nsamples = 3\nvalue = [3, 0]"] ;
57 -> 58 ;
59 [label="gini = 0.245\nsamples = 14\nvalue = [12, 2]"] ;
57 -> 59 ;
60 [label="current_status_1 <= 0.5\ngini = 0.145\nsamples = 152\nvalue = [140, 12]"] ;
4 -> 60 ;
61 [label="hosp_yn_-1 <= 0.5\ngini = 0.081\nsamples = 142\nvalue = [136, 6]"] ;
60 -> 61 ;
62 [label="gini = 0.0\nsamples = 97\nvalue = [97, 0]"] ;
61 -> 62 ;
63 [label="age_group_0 <= 0.5\ngini = 0.231\nsamples = 45\nvalue = [39, 6]"] ;
61 -> 63 ;
64 [label="res_region_4 <= 0.5\ngini = 0.172\nsamples = 42\nvalue = [38, 4]"] ;
63 -> 64 ;
65 [label="symptom_status_-1 <= 0.5\ngini = 0.121\nsamples = 31\nvalue = [29, 2]"] ;
64 -> 65 ;
66 [label="gini = 0.0\nsamples = 5\nvalue = [5, 0]"] ;
65 -> 66 ;
67 [label="gini = 0.142\nsamples = 26\nvalue = [24, 2]"] ;
65 -> 67 ;
68 [label="symptom_status_-1 <= 0.5\ngini = 0.298\nsamples = 11\nvalue = [9, 2]"] ;
64 -> 68 ;
69 [label="gini = 0.0\nsamples = 4\nvalue = [4, 0]"] ;
68 -> 69 ;
70 [label="gini = 0.408\nsamples = 7\nvalue = [5, 2]"] ;
68 -> 70 ;
71 [label="res_region_1 <= 0.5\ngini = 0.444\nsamples = 3\nvalue = [1, 2]"] ;
63 -> 71 ;
72 [label="gini = 0.5\nsamples = 2\nvalue = [1, 1]"] ;
71 -> 72 ;
73 [label="gini = 0.0\nsamples = 1\nvalue = [0, 1]"] ;
71 -> 73 ;
74 [label="symptom_status_-1 <= 0.5\ngini = 0.48\nsamples = 10\nvalue = [4, 6]"] ;
60 -> 74 ;
75 [label="gini = 0.0\nsamples = 3\nvalue = [3, 0]"] ;
74 -> 75 ;
76 [label="underlying_conditions_yn_1 <= 0.5\ngini = 0.245\nsamples = 7\nvalue = [1, 6]"] ;
74 -> 76 ;
77 [label="gini = 0.278\nsamples = 6\nvalue = [1, 5]"] ;
76 -> 77 ;
78 [label="gini = 0.0\nsamples = 1\nvalue = [0, 1]"] ;
76 -> 78 ;
79 [label="gini = 0.0\nsamples = 3\nvalue = [0, 3]"] ;
3 -> 79 ;
80 [label="res_region_3 <= 0.5\ngini = 0.096\nsamples = 3881\nvalue = [3684, 197]"] ;
2 -> 80 ;
81 [label="case_month_4 <= 0.5\ngini = 0.071\nsamples = 3494\nvalue = [3366, 128]"] ;
80 -> 81 ;
82 [label="hosp_yn_-1 <= 0.5\ngini = 0.06\nsamples = 3430\nvalue = [3323, 107]"] ;
81 -> 82 ;
83 [label="case_month_8 <= 0.5\ngini = 0.019\nsamples = 2060\nvalue = [2040, 20]"] ;
82 -> 83 ;
84 [label="case_month_19 <= 0.5\ngini = 0.017\nsamples = 2016\nvalue = [1999, 17]"] ;
83 -> 84 ;
85 [label="case_month_12 <= 0.5\ngini = 0.015\nsamples = 1983\nvalue = [1968, 15]"] ;
84 -> 85 ;
86 [label="case_month_3 <= 0.5\ngini = 0.011\nsamples = 1797\nvalue = [1787, 10]"] ;
85 -> 86 ;
87 [label="gini = 0.01\nsamples = 1772\nvalue = [1763, 9]"] ;
86 -> 87 ;
88 [label="gini = 0.077\nsamples = 25\nvalue = [24, 1]"] ;
86 -> 88 ;
89 [label="res_region_4 <= 0.5\ngini = 0.052\nsamples = 186\nvalue = [181, 5]"] ;
85 -> 89 ;
90 [label="gini = 0.032\nsamples = 123\nvalue = [121, 2]"] ;
89 -> 90 ;
91 [label="gini = 0.091\nsamples = 63\nvalue = [60, 3]"] ;
89 -> 91 ;
92 [label="symptom_status_1 <= 0.5\ngini = 0.114\nsamples = 33\nvalue = [31, 2]"] ;
84 -> 92 ;
93 [label="res_region_4 <= 0.5\ngini = 0.375\nsamples = 8\nvalue = [6, 2]"] ;
92 -> 93 ;
94 [label="gini = 0.245\nsamples = 7\nvalue = [6, 1]"] ;
93 -> 94 ;
95 [label="gini = 0.0\nsamples = 1\nvalue = [0, 1]"] ;
93 -> 95 ;
96 [label="gini = 0.0\nsamples = 25\nvalue = [25, 0]"] ;
92 -> 96 ;
97 [label="res_region_4 <= 0.5\ngini = 0.127\nsamples = 44\nvalue = [41, 3]"] ;
83 -> 97 ;
98 [label="symptom_status_0 <= 0.5\ngini = 0.145\nsamples = 38\nvalue = [35, 3]"] ;
97 -> 98 ;
99 [label="underlying_conditions_yn_-1 <= 0.5\ngini = 0.157\nsamples = 35\nvalue = [32, 3]"] ;
98 -> 99 ;
100 [label="gini = 0.0\nsamples = 2\nvalue = [2, 0]"] ;
99 -> 100 ;
101 [label="gini = 0.165\nsamples = 33\nvalue = [30, 3]"] ;
99 -> 101 ;
102 [label="gini = 0.0\nsamples = 3\nvalue = [3, 0]"] ;
98 -> 102 ;
103 [label="gini = 0.0\nsamples = 6\nvalue = [6, 0]"] ;
97 -> 103 ;
104 [label="case_month_20 <= 0.5\ngini = 0.119\nsamples = 1370\nvalue = [1283, 87]"] ;
82 -> 104 ;
105 [label="case_month_3 <= 0.5\ngini = 0.098\nsamples = 1322\nvalue = [1254, 68]"] ;
104 -> 105 ;
106 [label="case_month_7 <= 0.5\ngini = 0.088\nsamples = 1306\nvalue = [1246, 60]"] ;
105 -> 106 ;
107 [label="case_month_19 <= 0.5\ngini = 0.082\nsamples = 1291\nvalue = [1236, 55]"] ;
106 -> 107 ;
108 [label="gini = 0.074\nsamples = 1269\nvalue = [1220, 49]"] ;
107 -> 108 ;
109 [label="gini = 0.397\nsamples = 22\nvalue = [16, 6]"] ;
107 -> 109 ;
110 [label="res_region_1 <= 0.5\ngini = 0.444\nsamples = 15\nvalue = [10, 5]"] ;
106 -> 110 ;
111 [label="gini = 0.0\nsamples = 6\nvalue = [6, 0]"] ;
110 -> 111 ;
112 [label="gini = 0.494\nsamples = 9\nvalue = [4, 5]"] ;
110 -> 112 ;
113 [label="underlying_conditions_yn_1 <= 0.5\ngini = 0.5\nsamples = 16\nvalue = [8, 8]"] ;
105 -> 113 ;
114 [label="current_status_0 <= 0.5\ngini = 0.473\nsamples = 13\nvalue = [8, 5]"] ;
113 -> 114 ;
115 [label="gini = 0.0\nsamples = 2\nvalue = [0, 2]"] ;
114 -> 115 ;
116 [label="gini = 0.397\nsamples = 11\nvalue = [8, 3]"] ;
114 -> 116 ;
117 [label="gini = 0.0\nsamples = 3\nvalue = [0, 3]"] ;
113 -> 117 ;
118 [label="res_region_1 <= 0.5\ngini = 0.478\nsamples = 48\nvalue = [29, 19]"] ;
104 -> 118 ;
119 [label="res_region_2 <= 0.5\ngini = 0.231\nsamples = 15\nvalue = [13, 2]"] ;
118 -> 119 ;
120 [label="icu_yn_-1 <= 0.5\ngini = 0.298\nsamples = 11\nvalue = [9, 2]"] ;
119 -> 120 ;
121 [label="gini = 0.0\nsamples = 1\nvalue = [1, 0]"] ;
120 -> 121 ;
122 [label="gini = 0.32\nsamples = 10\nvalue = [8, 2]"] ;
120 -> 122 ;
123 [label="gini = 0.0\nsamples = 4\nvalue = [4, 0]"] ;
119 -> 123 ;
124 [label="current_status_1 <= 0.5\ngini = 0.5\nsamples = 33\nvalue = [16, 17]"] ;
118 -> 124 ;
125 [label="gini = 0.499\nsamples = 27\nvalue = [14, 13]"] ;
124 -> 125 ;
126 [label="gini = 0.444\nsamples = 6\nvalue = [2, 4]"] ;
124 -> 126 ;
127 [label="current_status_1 <= 0.5\ngini = 0.441\nsamples = 64\nvalue = [43, 21]"] ;
81 -> 127 ;
128 [label="symptom_status_1 <= 0.5\ngini = 0.295\nsamples = 50\nvalue = [41, 9]"] ;
127 -> 128 ;
129 [label="underlying_conditions_yn_1 <= 0.5\ngini = 0.461\nsamples = 25\nvalue = [16, 9]"] ;
128 -> 129 ;
130 [label="res_region_2 <= 0.5\ngini = 0.423\nsamples = 23\nvalue = [16, 7]"] ;
129 -> 130 ;
131 [label="gini = 0.0\nsamples = 6\nvalue = [6, 0]"] ;
130 -> 131 ;
132 [label="hosp_yn_0 <= 0.5\ngini = 0.484\nsamples = 17\nvalue = [10, 7]"] ;
130 -> 132 ;
133 [label="gini = 0.498\nsamples = 15\nvalue = [8, 7]"] ;
132 -> 133 ;
134 [label="gini = 0.0\nsamples = 2\nvalue = [2, 0]"] ;
132 -> 134 ;
135 [label="gini = 0.0\nsamples = 2\nvalue = [0, 2]"] ;
129 -> 135 ;
136 [label="gini = 0.0\nsamples = 25\nvalue = [25, 0]"] ;
128 -> 136 ;
137 [label="underlying_conditions_yn_-1 <= 0.5\ngini = 0.245\nsamples = 14\nvalue = [2, 12]"] ;
127 -> 137 ;
138 [label="gini = 0.0\nsamples = 7\nvalue = [0, 7]"] ;
137 -> 138 ;
139 [label="gini = 0.408\nsamples = 7\nvalue = [2, 5]"] ;
137 -> 139 ;
140 [label="hosp_yn_-1 <= 0.5\ngini = 0.293\nsamples = 387\nvalue = [318, 69]"] ;
80 -> 140 ;
141 [label="symptom_status_-1 <= 0.5\ngini = 0.148\nsamples = 310\nvalue = [285, 25]"] ;
140 -> 141 ;
142 [label="case_month_23 <= 0.5\ngini = 0.089\nsamples = 256\nvalue = [244, 12]"] ;
141 -> 142 ;
143 [label="case_month_8 <= 0.5\ngini = 0.077\nsamples = 249\nvalue = [239, 10]"] ;
142 -> 143 ;
144 [label="case_month_7 <= 0.5\ngini = 0.071\nsamples = 244\nvalue = [235, 9]"] ;
143 -> 144 ;
145 [label="case_month_13 <= 0.5\ngini = 0.06\nsamples = 228\nvalue = [221, 7]"] ;
144 -> 145 ;
146 [label="gini = 0.046\nsamples = 211\nvalue = [206, 5]"] ;
145 -> 146 ;
147 [label="gini = 0.208\nsamples = 17\nvalue = [15, 2]"] ;
145 -> 147 ;
148 [label="underlying_conditions_yn_-1 <= 0.5\ngini = 0.219\nsamples = 16\nvalue = [14, 2]"] ;
144 -> 148 ;
149 [label="gini = 0.0\nsamples = 4\nvalue = [4, 0]"] ;
148 -> 149 ;
150 [label="gini = 0.278\nsamples = 12\nvalue = [10, 2]"] ;
148 -> 150 ;
151 [label="underlying_conditions_yn_1 <= 0.5\ngini = 0.32\nsamples = 5\nvalue = [4, 1]"] ;
143 -> 151 ;
152 [label="gini = 0.444\nsamples = 3\nvalue = [2, 1]"] ;
151 -> 152 ;
153 [label="gini = 0.0\nsamples = 2\nvalue = [2, 0]"] ;
151 -> 153 ;
154 [label="gini = 0.408\nsamples = 7\nvalue = [5, 2]"] ;
142 -> 154 ;
155 [label="case_month_13 <= 0.5\ngini = 0.366\nsamples = 54\nvalue = [41, 13]"] ;
141 -> 155 ;
156 [label="case_month_12 <= 0.5\ngini = 0.295\nsamples = 50\nvalue = [41, 9]"] ;
155 -> 156 ;
157 [label="case_month_11 <= 0.5\ngini = 0.231\nsamples = 45\nvalue = [39, 6]"] ;
156 -> 157 ;
158 [label="case_month_10 <= 0.5\ngini = 0.201\nsamples = 44\nvalue = [39, 5]"] ;
157 -> 158 ;
159 [label="gini = 0.169\nsamples = 43\nvalue = [39, 4]"] ;
158 -> 159 ;
160 [label="gini = 0.0\nsamples = 1\nvalue = [0, 1]"] ;
158 -> 160 ;
161 [label="gini = 0.0\nsamples = 1\nvalue = [0, 1]"] ;
157 -> 161 ;
162 [label="icu_yn_0 <= 0.5\ngini = 0.48\nsamples = 5\nvalue = [2, 3]"] ;
156 -> 162 ;
163 [label="gini = 0.375\nsamples = 4\nvalue = [1, 3]"] ;
162 -> 163 ;
164 [label="gini = 0.0\nsamples = 1\nvalue = [1, 0]"] ;
162 -> 164 ;
165 [label="gini = 0.0\nsamples = 4\nvalue = [0, 4]"] ;
155 -> 165 ;
166 [label="symptom_status_-1 <= 0.5\ngini = 0.49\nsamples = 77\nvalue = [33, 44]"] ;
140 -> 166 ;
167 [label="case_month_23 <= 0.5\ngini = 0.346\nsamples = 27\nvalue = [21, 6]"] ;
166 -> 167 ;
168 [label="underlying_conditions_yn_-1 <= 0.5\ngini = 0.269\nsamples = 25\nvalue = [21, 4]"] ;
167 -> 168 ;
169 [label="gini = 0.0\nsamples = 1\nvalue = [0, 1]"] ;
168 -> 169 ;
170 [label="case_month_15 <= 0.5\ngini = 0.219\nsamples = 24\nvalue = [21, 3]"] ;
168 -> 170 ;
171 [label="case_month_21 <= 0.5\ngini = 0.159\nsamples = 23\nvalue = [21, 2]"] ;
170 -> 171 ;
172 [label="gini = 0.087\nsamples = 22\nvalue = [21, 1]"] ;
171 -> 172 ;
173 [label="gini = 0.0\nsamples = 1\nvalue = [0, 1]"] ;
171 -> 173 ;
174 [label="gini = 0.0\nsamples = 1\nvalue = [0, 1]"] ;
170 -> 174 ;
175 [label="gini = 0.0\nsamples = 2\nvalue = [0, 2]"] ;
167 -> 175 ;
176 [label="case_month_32 <= 0.5\ngini = 0.365\nsamples = 50\nvalue = [12, 38]"] ;
166 -> 176 ;
177 [label="case_month_31 <= 0.5\ngini = 0.33\nsamples = 48\nvalue = [10, 38]"] ;
176 -> 177 ;
178 [label="case_month_27 <= 0.5\ngini = 0.31\nsamples = 47\nvalue = [9, 38]"] ;
177 -> 178 ;
179 [label="case_month_6 <= 0.5\ngini = 0.287\nsamples = 46\nvalue = [8, 38]"] ;
178 -> 179 ;
180 [label="gini = 0.263\nsamples = 45\nvalue = [7, 38]"] ;
179 -> 180 ;
181 [label="gini = 0.0\nsamples = 1\nvalue = [1, 0]"] ;
179 -> 181 ;
182 [label="gini = 0.0\nsamples = 1\nvalue = [1, 0]"] ;
178 -> 182 ;
183 [label="gini = 0.0\nsamples = 1\nvalue = [1, 0]"] ;
177 -> 183 ;
184 [label="gini = 0.0\nsamples = 2\nvalue = [2, 0]"] ;
176 -> 184 ;
185 [label="age_group_2 <= 0.5\ngini = 0.492\nsamples = 1045\nvalue = [455, 590]"] ;
1 -> 185 ;
186 [label="icu_yn_1 <= 0.5\ngini = 0.409\nsamples = 380\nvalue = [271, 109]"] ;
185 -> 186 ;
187 [label="symptom_status_-1 <= 0.5\ngini = 0.324\nsamples = 324\nvalue = [258, 66]"] ;
186 -> 187 ;
188 [label="case_month_3 <= 0.5\ngini = 0.168\nsamples = 205\nvalue = [186, 19]"] ;
187 -> 188 ;
189 [label="case_month_20 <= 0.5\ngini = 0.136\nsamples = 191\nvalue = [177, 14]"] ;
188 -> 189 ;
190 [label="case_month_12 <= 0.5\ngini = 0.114\nsamples = 182\nvalue = [171, 11]"] ;
189 -> 190 ;
191 [label="age_group_0 <= 0.5\ngini = 0.089\nsamples = 171\nvalue = [163, 8]"] ;
190 -> 191 ;
192 [label="case_month_4 <= 0.5\ngini = 0.061\nsamples = 158\nvalue = [153, 5]"] ;
191 -> 192 ;
193 [label="gini = 0.04\nsamples = 146\nvalue = [143, 3]"] ;
192 -> 193 ;
194 [label="gini = 0.278\nsamples = 12\nvalue = [10, 2]"] ;
192 -> 194 ;
195 [label="case_month_17 <= 0.5\ngini = 0.355\nsamples = 13\nvalue = [10, 3]"] ;
191 -> 195 ;
196 [label="gini = 0.165\nsamples = 11\nvalue = [10, 1]"] ;
195 -> 196 ;
197 [label="gini = 0.0\nsamples = 2\nvalue = [0, 2]"] ;
195 -> 197 ;
198 [label="res_region_3 <= 0.5\ngini = 0.397\nsamples = 11\nvalue = [8, 3]"] ;
190 -> 198 ;
199 [label="gini = 0.0\nsamples = 6\nvalue = [6, 0]"] ;
198 -> 199 ;
200 [label="icu_yn_-1 <= 0.5\ngini = 0.48\nsamples = 5\nvalue = [2, 3]"] ;
198 -> 200 ;
201 [label="gini = 0.0\nsamples = 2\nvalue = [0, 2]"] ;
200 -> 201 ;
202 [label="gini = 0.444\nsamples = 3\nvalue = [2, 1]"] ;
200 -> 202 ;
203 [label="res_region_1 <= 0.5\ngini = 0.444\nsamples = 9\nvalue = [6, 3]"] ;
189 -> 203 ;
204 [label="gini = 0.0\nsamples = 5\nvalue = [5, 0]"] ;
203 -> 204 ;
205 [label="current_status_0 <= 0.5\ngini = 0.375\nsamples = 4\nvalue = [1, 3]"] ;
203 -> 205 ;
206 [label="gini = 0.0\nsamples = 1\nvalue = [0, 1]"] ;
205 -> 206 ;
207 [label="icu_yn_-1 <= 0.5\ngini = 0.444\nsamples = 3\nvalue = [1, 2]"] ;
205 -> 207 ;
208 [label="gini = 0.0\nsamples = 1\nvalue = [0, 1]"] ;
207 -> 208 ;
209 [label="gini = 0.5\nsamples = 2\nvalue = [1, 1]"] ;
207 -> 209 ;
210 [label="res_region_1 <= 0.5\ngini = 0.459\nsamples = 14\nvalue = [9, 5]"] ;
188 -> 210 ;
211 [label="underlying_conditions_yn_1 <= 0.5\ngini = 0.397\nsamples = 11\nvalue = [8, 3]"] ;
210 -> 211 ;
212 [label="res_region_2 <= 0.5\ngini = 0.245\nsamples = 7\nvalue = [6, 1]"] ;
211 -> 212 ;
213 [label="gini = 0.0\nsamples = 2\nvalue = [2, 0]"] ;
212 -> 213 ;
214 [label="icu_yn_0 <= 0.5\ngini = 0.32\nsamples = 5\nvalue = [4, 1]"] ;
212 -> 214 ;
215 [label="gini = 0.375\nsamples = 4\nvalue = [3, 1]"] ;
214 -> 215 ;
216 [label="gini = 0.0\nsamples = 1\nvalue = [1, 0]"] ;
214 -> 216 ;
217 [label="res_region_4 <= 0.5\ngini = 0.5\nsamples = 4\nvalue = [2, 2]"] ;
211 -> 217 ;
218 [label="age_group_3 <= 0.5\ngini = 0.444\nsamples = 3\nvalue = [1, 2]"] ;
217 -> 218 ;
219 [label="gini = 0.0\nsamples = 1\nvalue = [1, 0]"] ;
218 -> 219 ;
220 [label="gini = 0.0\nsamples = 2\nvalue = [0, 2]"] ;
218 -> 220 ;
221 [label="gini = 0.0\nsamples = 1\nvalue = [1, 0]"] ;
217 -> 221 ;
222 [label="icu_yn_0 <= 0.5\ngini = 0.444\nsamples = 3\nvalue = [1, 2]"] ;
210 -> 222 ;
223 [label="gini = 0.0\nsamples = 2\nvalue = [0, 2]"] ;
222 -> 223 ;
224 [label="gini = 0.0\nsamples = 1\nvalue = [1, 0]"] ;
222 -> 224 ;
225 [label="res_region_2 <= 0.5\ngini = 0.478\nsamples = 119\nvalue = [72, 47]"] ;
187 -> 225 ;
226 [label="res_region_4 <= 0.5\ngini = 0.498\nsamples = 79\nvalue = [37, 42]"] ;
225 -> 226 ;
227 [label="case_month_21 <= 0.5\ngini = 0.47\nsamples = 61\nvalue = [23, 38]"] ;
226 -> 227 ;
228 [label="age_group_4 <= 0.5\ngini = 0.452\nsamples = 58\nvalue = [20, 38]"] ;
227 -> 228 ;
229 [label="case_month_15 <= 0.5\ngini = 0.427\nsamples = 55\nvalue = [17, 38]"] ;
228 -> 229 ;
230 [label="gini = 0.406\nsamples = 53\nvalue = [15, 38]"] ;
229 -> 230 ;
231 [label="gini = 0.0\nsamples = 2\nvalue = [2, 0]"] ;
229 -> 231 ;
232 [label="gini = 0.0\nsamples = 3\nvalue = [3, 0]"] ;
228 -> 232 ;
233 [label="gini = 0.0\nsamples = 3\nvalue = [3, 0]"] ;
227 -> 233 ;
234 [label="case_month_4 <= 0.5\ngini = 0.346\nsamples = 18\nvalue = [14, 4]"] ;
226 -> 234 ;
235 [label="case_month_3 <= 0.5\ngini = 0.291\nsamples = 17\nvalue = [14, 3]"] ;
234 -> 235 ;
236 [label="case_month_5 <= 0.5\ngini = 0.219\nsamples = 16\nvalue = [14, 2]"] ;
235 -> 236 ;
237 [label="gini = 0.124\nsamples = 15\nvalue = [14, 1]"] ;
236 -> 237 ;
238 [label="gini = 0.0\nsamples = 1\nvalue = [0, 1]"] ;
236 -> 238 ;
239 [label="gini = 0.0\nsamples = 1\nvalue = [0, 1]"] ;
235 -> 239 ;
240 [label="gini = 0.0\nsamples = 1\nvalue = [0, 1]"] ;
234 -> 240 ;
241 [label="current_status_0 <= 0.5\ngini = 0.219\nsamples = 40\nvalue = [35, 5]"] ;
225 -> 241 ;
242 [label="gini = 0.0\nsamples = 1\nvalue = [0, 1]"] ;
241 -> 242 ;
243 [label="case_month_1 <= 0.5\ngini = 0.184\nsamples = 39\nvalue = [35, 4]"] ;
241 -> 243 ;
244 [label="case_month_3 <= 0.5\ngini = 0.145\nsamples = 38\nvalue = [35, 3]"] ;
243 -> 244 ;
245 [label="case_month_4 <= 0.5\ngini = 0.105\nsamples = 36\nvalue = [34, 2]"] ;
244 -> 245 ;
246 [label="gini = 0.061\nsamples = 32\nvalue = [31, 1]"] ;
245 -> 246 ;
247 [label="gini = 0.375\nsamples = 4\nvalue = [3, 1]"] ;
245 -> 247 ;
248 [label="underlying_conditions_yn_1 <= 0.5\ngini = 0.5\nsamples = 2\nvalue = [1, 1]"] ;
244 -> 248 ;
249 [label="gini = 0.0\nsamples = 1\nvalue = [1, 0]"] ;
248 -> 249 ;
250 [label="gini = 0.0\nsamples = 1\nvalue = [0, 1]"] ;
248 -> 250 ;
251 [label="gini = 0.0\nsamples = 1\nvalue = [0, 1]"] ;
243 -> 251 ;
252 [label="res_region_3 <= 0.5\ngini = 0.357\nsamples = 56\nvalue = [13, 43]"] ;
186 -> 252 ;
253 [label="res_region_2 <= 0.5\ngini = 0.498\nsamples = 17\nvalue = [9, 8]"] ;
252 -> 253 ;
254 [label="age_group_0 <= 0.5\ngini = 0.375\nsamples = 12\nvalue = [9, 3]"] ;
253 -> 254 ;
255 [label="case_month_20 <= 0.5\ngini = 0.18\nsamples = 10\nvalue = [9, 1]"] ;
254 -> 255 ;
256 [label="gini = 0.0\nsamples = 7\nvalue = [7, 0]"] ;
255 -> 256 ;
257 [label="res_region_4 <= 0.5\ngini = 0.444\nsamples = 3\nvalue = [2, 1]"] ;
255 -> 257 ;
258 [label="gini = 0.5\nsamples = 2\nvalue = [1, 1]"] ;
257 -> 258 ;
259 [label="gini = 0.0\nsamples = 1\nvalue = [1, 0]"] ;
257 -> 259 ;
260 [label="gini = 0.0\nsamples = 2\nvalue = [0, 2]"] ;
254 -> 260 ;
261 [label="gini = 0.0\nsamples = 5\nvalue = [0, 5]"] ;
253 -> 261 ;
262 [label="case_month_30 <= 0.5\ngini = 0.184\nsamples = 39\nvalue = [4, 35]"] ;
252 -> 262 ;
263 [label="case_month_22 <= 0.5\ngini = 0.145\nsamples = 38\nvalue = [3, 35]"] ;
262 -> 263 ;
264 [label="case_month_20 <= 0.5\ngini = 0.102\nsamples = 37\nvalue = [2, 35]"] ;
263 -> 264 ;
265 [label="case_month_11 <= 0.5\ngini = 0.057\nsamples = 34\nvalue = [1, 33]"] ;
264 -> 265 ;
266 [label="gini = 0.0\nsamples = 29\nvalue = [0, 29]"] ;
265 -> 266 ;
267 [label="symptom_status_1 <= 0.5\ngini = 0.32\nsamples = 5\nvalue = [1, 4]"] ;
265 -> 267 ;
268 [label="gini = 0.0\nsamples = 1\nvalue = [0, 1]"] ;
267 -> 268 ;
269 [label="gini = 0.375\nsamples = 4\nvalue = [1, 3]"] ;
267 -> 269 ;
270 [label="underlying_conditions_yn_1 <= 0.5\ngini = 0.444\nsamples = 3\nvalue = [1, 2]"] ;
264 -> 270 ;
271 [label="gini = 0.0\nsamples = 2\nvalue = [0, 2]"] ;
270 -> 271 ;
272 [label="gini = 0.0\nsamples = 1\nvalue = [1, 0]"] ;
270 -> 272 ;
273 [label="gini = 0.0\nsamples = 1\nvalue = [1, 0]"] ;
263 -> 273 ;
274 [label="gini = 0.0\nsamples = 1\nvalue = [1, 0]"] ;
262 -> 274 ;
275 [label="res_region_3 <= 0.5\ngini = 0.4\nsamples = 665\nvalue = [184, 481]"] ;
185 -> 275 ;
276 [label="icu_yn_0 <= 0.5\ngini = 0.473\nsamples = 420\nvalue = [161, 259]"] ;
275 -> 276 ;
277 [label="symptom_status_-1 <= 0.5\ngini = 0.438\nsamples = 371\nvalue = [120, 251]"] ;
276 -> 277 ;
278 [label="case_month_20 <= 0.5\ngini = 0.485\nsamples = 196\nvalue = [81, 115]"] ;
277 -> 278 ;
279 [label="case_month_3 <= 0.5\ngini = 0.497\nsamples = 166\nvalue = [77, 89]"] ;
278 -> 279 ;
280 [label="icu_yn_1 <= 0.5\ngini = 0.498\nsamples = 137\nvalue = [73, 64]"] ;
279 -> 280 ;
281 [label="case_month_4 <= 0.5\ngini = 0.488\nsamples = 118\nvalue = [68, 50]"] ;
280 -> 281 ;
282 [label="gini = 0.472\nsamples = 105\nvalue = [65, 40]"] ;
281 -> 282 ;
283 [label="gini = 0.355\nsamples = 13\nvalue = [3, 10]"] ;
281 -> 283 ;
284 [label="res_region_2 <= 0.5\ngini = 0.388\nsamples = 19\nvalue = [5, 14]"] ;
280 -> 284 ;
285 [label="gini = 0.486\nsamples = 12\nvalue = [5, 7]"] ;
284 -> 285 ;
286 [label="gini = 0.0\nsamples = 7\nvalue = [0, 7]"] ;
284 -> 286 ;
287 [label="res_region_4 <= 0.5\ngini = 0.238\nsamples = 29\nvalue = [4, 25]"] ;
279 -> 287 ;
288 [label="underlying_conditions_yn_-1 <= 0.5\ngini = 0.191\nsamples = 28\nvalue = [3, 25]"] ;
287 -> 288 ;
289 [label="gini = 0.0\nsamples = 16\nvalue = [0, 16]"] ;
288 -> 289 ;
290 [label="gini = 0.375\nsamples = 12\nvalue = [3, 9]"] ;
288 -> 290 ;
291 [label="gini = 0.0\nsamples = 1\nvalue = [1, 0]"] ;
287 -> 291 ;
292 [label="current_status_1 <= 0.5\ngini = 0.231\nsamples = 30\nvalue = [4, 26]"] ;
278 -> 292 ;
293 [label="icu_yn_1 <= 0.5\ngini = 0.204\nsamples = 26\nvalue = [3, 23]"] ;
292 -> 293 ;
294 [label="underlying_conditions_yn_1 <= 0.5\ngini = 0.159\nsamples = 23\nvalue = [2, 21]"] ;
293 -> 294 ;
295 [label="gini = 0.165\nsamples = 22\nvalue = [2, 20]"] ;
294 -> 295 ;
296 [label="gini = 0.0\nsamples = 1\nvalue = [0, 1]"] ;
294 -> 296 ;
297 [label="gini = 0.444\nsamples = 3\nvalue = [1, 2]"] ;
293 -> 297 ;
298 [label="icu_yn_-1 <= 0.5\ngini = 0.375\nsamples = 4\nvalue = [1, 3]"] ;
292 -> 298 ;
299 [label="gini = 0.0\nsamples = 2\nvalue = [0, 2]"] ;
298 -> 299 ;
300 [label="gini = 0.5\nsamples = 2\nvalue = [1, 1]"] ;
298 -> 300 ;
301 [label="case_month_30 <= 0.5\ngini = 0.346\nsamples = 175\nvalue = [39, 136]"] ;
277 -> 301 ;
302 [label="underlying_conditions_yn_1 <= 0.5\ngini = 0.336\nsamples = 173\nvalue = [37, 136]"] ;
301 -> 302 ;
303 [label="case_month_14 <= 0.5\ngini = 0.368\nsamples = 152\nvalue = [37, 115]"] ;
302 -> 303 ;
304 [label="case_month_27 <= 0.5\ngini = 0.358\nsamples = 150\nvalue = [35, 115]"] ;
303 -> 304 ;
305 [label="gini = 0.352\nsamples = 149\nvalue = [34, 115]"] ;
304 -> 305 ;
306 [label="gini = 0.0\nsamples = 1\nvalue = [1, 0]"] ;
304 -> 306 ;
307 [label="gini = 0.0\nsamples = 2\nvalue = [2, 0]"] ;
303 -> 307 ;
308 [label="gini = 0.0\nsamples = 21\nvalue = [0, 21]"] ;
302 -> 308 ;
309 [label="gini = 0.0\nsamples = 2\nvalue = [2, 0]"] ;
301 -> 309 ;
310 [label="res_region_2 <= 0.5\ngini = 0.273\nsamples = 49\nvalue = [41, 8]"] ;
276 -> 310 ;
311 [label="case_month_4 <= 0.5\ngini = 0.054\nsamples = 36\nvalue = [35, 1]"] ;
310 -> 311 ;
312 [label="gini = 0.0\nsamples = 33\nvalue = [33, 0]"] ;
311 -> 312 ;
313 [label="res_region_4 <= 0.5\ngini = 0.444\nsamples = 3\nvalue = [2, 1]"] ;
311 -> 313 ;
314 [label="gini = 0.0\nsamples = 2\nvalue = [2, 0]"] ;
313 -> 314 ;
315 [label="gini = 0.0\nsamples = 1\nvalue = [0, 1]"] ;
313 -> 315 ;
316 [label="underlying_conditions_yn_-1 <= 0.5\ngini = 0.497\nsamples = 13\nvalue = [6, 7]"] ;
310 -> 316 ;
317 [label="case_month_3 <= 0.5\ngini = 0.42\nsamples = 10\nvalue = [3, 7]"] ;
316 -> 317 ;
318 [label="case_month_4 <= 0.5\ngini = 0.375\nsamples = 4\nvalue = [3, 1]"] ;
317 -> 318 ;
319 [label="gini = 0.0\nsamples = 2\nvalue = [2, 0]"] ;
318 -> 319 ;
320 [label="gini = 0.5\nsamples = 2\nvalue = [1, 1]"] ;
318 -> 320 ;
321 [label="gini = 0.0\nsamples = 6\nvalue = [0, 6]"] ;
317 -> 321 ;
322 [label="gini = 0.0\nsamples = 3\nvalue = [3, 0]"] ;
316 -> 322 ;
323 [label="icu_yn_0 <= 0.5\ngini = 0.17\nsamples = 245\nvalue = [23, 222]"] ;
275 -> 323 ;
324 [label="case_month_22 <= 0.5\ngini = 0.128\nsamples = 219\nvalue = [15, 204]"] ;
323 -> 324 ;
325 [label="icu_yn_-1 <= 0.5\ngini = 0.114\nsamples = 215\nvalue = [13, 202]"] ;
324 -> 325 ;
326 [label="case_month_8 <= 0.5\ngini = 0.019\nsamples = 103\nvalue = [1, 102]"] ;
325 -> 326 ;
327 [label="gini = 0.0\nsamples = 100\nvalue = [0, 100]"] ;
326 -> 327 ;
328 [label="symptom_status_-1 <= 0.5\ngini = 0.444\nsamples = 3\nvalue = [1, 2]"] ;
326 -> 328 ;
329 [label="gini = 0.0\nsamples = 1\nvalue = [1, 0]"] ;
328 -> 329 ;
330 [label="gini = 0.0\nsamples = 2\nvalue = [0, 2]"] ;
328 -> 330 ;
331 [label="symptom_status_1 <= 0.5\ngini = 0.191\nsamples = 112\nvalue = [12, 100]"] ;
325 -> 331 ;
332 [label="case_month_11 <= 0.5\ngini = 0.061\nsamples = 63\nvalue = [2, 61]"] ;
331 -> 332 ;
333 [label="case_month_12 <= 0.5\ngini = 0.034\nsamples = 58\nvalue = [1, 57]"] ;
332 -> 333 ;
334 [label="gini = 0.0\nsamples = 44\nvalue = [0, 44]"] ;
333 -> 334 ;
335 [label="gini = 0.133\nsamples = 14\nvalue = [1, 13]"] ;
333 -> 335 ;
336 [label="gini = 0.32\nsamples = 5\nvalue = [1, 4]"] ;
332 -> 336 ;
337 [label="case_month_23 <= 0.5\ngini = 0.325\nsamples = 49\nvalue = [10, 39]"] ;
331 -> 337 ;
338 [label="case_month_15 <= 0.5\ngini = 0.305\nsamples = 48\nvalue = [9, 39]"] ;
337 -> 338 ;
339 [label="gini = 0.282\nsamples = 47\nvalue = [8, 39]"] ;
338 -> 339 ;
340 [label="gini = 0.0\nsamples = 1\nvalue = [1, 0]"] ;
338 -> 340 ;
341 [label="gini = 0.0\nsamples = 1\nvalue = [1, 0]"] ;
337 -> 341 ;
342 [label="current_status_1 <= 0.5\ngini = 0.5\nsamples = 4\nvalue = [2, 2]"] ;
324 -> 342 ;
343 [label="icu_yn_-1 <= 0.5\ngini = 0.444\nsamples = 3\nvalue = [1, 2]"] ;
342 -> 343 ;
344 [label="gini = 0.0\nsamples = 1\nvalue = [0, 1]"] ;
343 -> 344 ;
345 [label="gini = 0.5\nsamples = 2\nvalue = [1, 1]"] ;
343 -> 345 ;
346 [label="gini = 0.0\nsamples = 1\nvalue = [1, 0]"] ;
342 -> 346 ;
347 [label="case_month_14 <= 0.5\ngini = 0.426\nsamples = 26\nvalue = [8, 18]"] ;
323 -> 347 ;
348 [label="underlying_conditions_yn_-1 <= 0.5\ngini = 0.375\nsamples = 24\nvalue = [6, 18]"] ;
347 -> 348 ;
349 [label="case_month_18 <= 0.5\ngini = 0.49\nsamples = 7\nvalue = [4, 3]"] ;
348 -> 349 ;
350 [label="case_month_23 <= 0.5\ngini = 0.32\nsamples = 5\nvalue = [4, 1]"] ;
349 -> 350 ;
351 [label="gini = 0.0\nsamples = 3\nvalue = [3, 0]"] ;
350 -> 351 ;
352 [label="gini = 0.5\nsamples = 2\nvalue = [1, 1]"] ;
350 -> 352 ;
353 [label="gini = 0.0\nsamples = 2\nvalue = [0, 2]"] ;
349 -> 353 ;
354 [label="case_month_15 <= 0.5\ngini = 0.208\nsamples = 17\nvalue = [2, 15]"] ;
348 -> 354 ;
355 [label="case_month_21 <= 0.5\ngini = 0.117\nsamples = 16\nvalue = [1, 15]"] ;
354 -> 355 ;
356 [label="gini = 0.0\nsamples = 14\nvalue = [0, 14]"] ;
355 -> 356 ;
357 [label="gini = 0.5\nsamples = 2\nvalue = [1, 1]"] ;
355 -> 357 ;
358 [label="gini = 0.0\nsamples = 1\nvalue = [1, 0]"] ;
354 -> 358 ;
359 [label="gini = 0.0\nsamples = 2\nvalue = [2, 0]"] ;
347 -> 359 ;
360 [label="hosp_yn_0 <= 0.5\ngini = 0.419\nsamples = 8643\nvalue = [2583, 6060]"] ;
0 -> 360 [labeldistance=2.5, labelangle=-45, headlabel="False"] ;
361 [label="hosp_yn_1 <= 0.5\ngini = 0.298\nsamples = 6342\nvalue = [1153, 5189]"] ;
360 -> 361 ;
362 [label="res_region_3 <= 0.5\ngini = 0.44\nsamples = 2657\nvalue = [867, 1790]"] ;
361 -> 362 ;
363 [label="case_month_4 <= 0.5\ngini = 0.465\nsamples = 2276\nvalue = [839, 1437]"] ;
362 -> 363 ;
364 [label="case_month_32 <= 0.5\ngini = 0.48\nsamples = 2076\nvalue = [831, 1245]"] ;
363 -> 364 ;
365 [label="case_month_31 <= 0.5\ngini = 0.473\nsamples = 2010\nvalue = [772, 1238]"] ;
364 -> 365 ;
366 [label="case_month_30 <= 0.5\ngini = 0.465\nsamples = 1942\nvalue = [715, 1227]"] ;
365 -> 366 ;
367 [label="case_month_29 <= 0.5\ngini = 0.457\nsamples = 1884\nvalue = [665, 1219]"] ;
366 -> 367 ;
368 [label="case_month_28 <= 0.5\ngini = 0.448\nsamples = 1834\nvalue = [622, 1212]"] ;
367 -> 368 ;
369 [label="gini = 0.443\nsamples = 1812\nvalue = [600, 1212]"] ;
368 -> 369 ;
370 [label="gini = 0.0\nsamples = 22\nvalue = [22, 0]"] ;
368 -> 370 ;
371 [label="res_region_1 <= 0.5\ngini = 0.241\nsamples = 50\nvalue = [43, 7]"] ;
367 -> 371 ;
372 [label="gini = 0.149\nsamples = 37\nvalue = [34, 3]"] ;
371 -> 372 ;
373 [label="gini = 0.426\nsamples = 13\nvalue = [9, 4]"] ;
371 -> 373 ;
374 [label="res_region_1 <= 0.5\ngini = 0.238\nsamples = 58\nvalue = [50, 8]"] ;
366 -> 374 ;
375 [label="current_status_0 <= 0.5\ngini = 0.054\nsamples = 36\nvalue = [35, 1]"] ;
374 -> 375 ;
376 [label="gini = 0.444\nsamples = 3\nvalue = [2, 1]"] ;
375 -> 376 ;
377 [label="gini = 0.0\nsamples = 33\nvalue = [33, 0]"] ;
375 -> 377 ;
378 [label="symptom_status_-1 <= 0.5\ngini = 0.434\nsamples = 22\nvalue = [15, 7]"] ;
374 -> 378 ;
379 [label="gini = 0.0\nsamples = 3\nvalue = [3, 0]"] ;
378 -> 379 ;
380 [label="gini = 0.465\nsamples = 19\nvalue = [12, 7]"] ;
378 -> 380 ;
381 [label="res_region_1 <= 0.5\ngini = 0.271\nsamples = 68\nvalue = [57, 11]"] ;
365 -> 381 ;
382 [label="res_region_2 <= 0.5\ngini = 0.097\nsamples = 39\nvalue = [37, 2]"] ;
381 -> 382 ;
383 [label="symptom_status_-1 <= 0.5\ngini = 0.188\nsamples = 19\nvalue = [17, 2]"] ;
382 -> 383 ;
384 [label="gini = 0.0\nsamples = 4\nvalue = [4, 0]"] ;
383 -> 384 ;
385 [label="gini = 0.231\nsamples = 15\nvalue = [13, 2]"] ;
383 -> 385 ;
386 [label="gini = 0.0\nsamples = 20\nvalue = [20, 0]"] ;
382 -> 386 ;
387 [label="current_status_0 <= 0.5\ngini = 0.428\nsamples = 29\nvalue = [20, 9]"] ;
381 -> 387 ;
388 [label="gini = 0.0\nsamples = 2\nvalue = [2, 0]"] ;
387 -> 388 ;
389 [label="symptom_status_-1 <= 0.5\ngini = 0.444\nsamples = 27\nvalue = [18, 9]"] ;
387 -> 389 ;
390 [label="gini = 0.0\nsamples = 1\nvalue = [1, 0]"] ;
389 -> 390 ;
391 [label="gini = 0.453\nsamples = 26\nvalue = [17, 9]"] ;
389 -> 391 ;
392 [label="current_status_1 <= 0.5\ngini = 0.19\nsamples = 66\nvalue = [59, 7]"] ;
364 -> 392 ;
393 [label="symptom_status_1 <= 0.5\ngini = 0.12\nsamples = 47\nvalue = [44, 3]"] ;
392 -> 393 ;
394 [label="res_region_1 <= 0.5\ngini = 0.091\nsamples = 42\nvalue = [40, 2]"] ;
393 -> 394 ;
395 [label="gini = 0.0\nsamples = 24\nvalue = [24, 0]"] ;
394 -> 395 ;
396 [label="gini = 0.198\nsamples = 18\nvalue = [16, 2]"] ;
394 -> 396 ;
397 [label="res_region_2 <= 0.5\ngini = 0.32\nsamples = 5\nvalue = [4, 1]"] ;
393 -> 397 ;
398 [label="gini = 0.0\nsamples = 4\nvalue = [4, 0]"] ;
397 -> 398 ;
399 [label="gini = 0.0\nsamples = 1\nvalue = [0, 1]"] ;
397 -> 399 ;
400 [label="res_region_2 <= 0.5\ngini = 0.332\nsamples = 19\nvalue = [15, 4]"] ;
392 -> 400 ;
401 [label="res_region_1 <= 0.5\ngini = 0.208\nsamples = 17\nvalue = [15, 2]"] ;
400 -> 401 ;
402 [label="gini = 0.0\nsamples = 3\nvalue = [3, 0]"] ;
401 -> 402 ;
403 [label="gini = 0.245\nsamples = 14\nvalue = [12, 2]"] ;
401 -> 403 ;
404 [label="gini = 0.0\nsamples = 2\nvalue = [0, 2]"] ;
400 -> 404 ;
405 [label="res_region_2 <= 0.5\ngini = 0.077\nsamples = 200\nvalue = [8, 192]"] ;
363 -> 405 ;
406 [label="symptom_status_1 <= 0.5\ngini = 0.227\nsamples = 23\nvalue = [3, 20]"] ;
405 -> 406 ;
407 [label="underlying_conditions_yn_1 <= 0.5\ngini = 0.105\nsamples = 18\nvalue = [1, 17]"] ;
406 -> 407 ;
408 [label="gini = 0.0\nsamples = 15\nvalue = [0, 15]"] ;
407 -> 408 ;
409 [label="symptom_status_-1 <= 0.5\ngini = 0.444\nsamples = 3\nvalue = [1, 2]"] ;
407 -> 409 ;
410 [label="gini = 0.0\nsamples = 1\nvalue = [0, 1]"] ;
409 -> 410 ;
411 [label="gini = 0.5\nsamples = 2\nvalue = [1, 1]"] ;
409 -> 411 ;
412 [label="underlying_conditions_yn_-1 <= 0.5\ngini = 0.48\nsamples = 5\nvalue = [2, 3]"] ;
406 -> 412 ;
413 [label="gini = 0.444\nsamples = 3\nvalue = [1, 2]"] ;
412 -> 413 ;
414 [label="gini = 0.5\nsamples = 2\nvalue = [1, 1]"] ;
412 -> 414 ;
415 [label="current_status_0 <= 0.5\ngini = 0.055\nsamples = 177\nvalue = [5, 172]"] ;
405 -> 415 ;
416 [label="gini = 0.0\nsamples = 60\nvalue = [0, 60]"] ;
415 -> 416 ;
417 [label="symptom_status_-1 <= 0.5\ngini = 0.082\nsamples = 117\nvalue = [5, 112]"] ;
415 -> 417 ;
418 [label="gini = 0.0\nsamples = 33\nvalue = [0, 33]"] ;
417 -> 418 ;
419 [label="underlying_conditions_yn_-1 <= 0.5\ngini = 0.112\nsamples = 84\nvalue = [5, 79]"] ;
417 -> 419 ;
420 [label="gini = 0.0\nsamples = 10\nvalue = [0, 10]"] ;
419 -> 420 ;
421 [label="gini = 0.126\nsamples = 74\nvalue = [5, 69]"] ;
419 -> 421 ;
422 [label="symptom_status_1 <= 0.5\ngini = 0.136\nsamples = 381\nvalue = [28, 353]"] ;
362 -> 422 ;
423 [label="case_month_15 <= 0.5\ngini = 0.087\nsamples = 308\nvalue = [14, 294]"] ;
422 -> 423 ;
424 [label="case_month_8 <= 0.5\ngini = 0.076\nsamples = 303\nvalue = [12, 291]"] ;
423 -> 424 ;
425 [label="case_month_32 <= 0.5\ngini = 0.07\nsamples = 301\nvalue = [11, 290]"] ;
424 -> 425 ;
426 [label="case_month_33 <= 0.5\ngini = 0.065\nsamples = 297\nvalue = [10, 287]"] ;
425 -> 426 ;
427 [label="case_month_30 <= 0.5\ngini = 0.06\nsamples = 293\nvalue = [9, 284]"] ;
426 -> 427 ;
428 [label="gini = 0.054\nsamples = 288\nvalue = [8, 280]"] ;
427 -> 428 ;
429 [label="gini = 0.32\nsamples = 5\nvalue = [1, 4]"] ;
427 -> 429 ;
430 [label="gini = 0.375\nsamples = 4\nvalue = [1, 3]"] ;
426 -> 430 ;
431 [label="gini = 0.375\nsamples = 4\nvalue = [1, 3]"] ;
425 -> 431 ;
432 [label="gini = 0.5\nsamples = 2\nvalue = [1, 1]"] ;
424 -> 432 ;
433 [label="gini = 0.48\nsamples = 5\nvalue = [2, 3]"] ;
423 -> 433 ;
434 [label="case_month_32 <= 0.5\ngini = 0.31\nsamples = 73\nvalue = [14, 59]"] ;
422 -> 434 ;
435 [label="case_month_31 <= 0.5\ngini = 0.281\nsamples = 71\nvalue = [12, 59]"] ;
434 -> 435 ;
436 [label="underlying_conditions_yn_-1 <= 0.5\ngini = 0.254\nsamples = 67\nvalue = [10, 57]"] ;
435 -> 436 ;
437 [label="gini = 0.0\nsamples = 10\nvalue = [0, 10]"] ;
436 -> 437 ;
438 [label="case_month_11 <= 0.5\ngini = 0.289\nsamples = 57\nvalue = [10, 47]"] ;
436 -> 438 ;
439 [label="case_month_34 <= 0.5\ngini = 0.256\nsamples = 53\nvalue = [8, 45]"] ;
438 -> 439 ;
440 [label="gini = 0.237\nsamples = 51\nvalue = [7, 44]"] ;
439 -> 440 ;
441 [label="gini = 0.5\nsamples = 2\nvalue = [1, 1]"] ;
439 -> 441 ;
442 [label="gini = 0.5\nsamples = 4\nvalue = [2, 2]"] ;
438 -> 442 ;
443 [label="underlying_conditions_yn_-1 <= 0.5\ngini = 0.5\nsamples = 4\nvalue = [2, 2]"] ;
435 -> 443 ;
444 [label="gini = 0.0\nsamples = 1\nvalue = [1, 0]"] ;
443 -> 444 ;
445 [label="gini = 0.444\nsamples = 3\nvalue = [1, 2]"] ;
443 -> 445 ;
446 [label="gini = 0.0\nsamples = 2\nvalue = [2, 0]"] ;
434 -> 446 ;
447 [label="icu_yn_0 <= 0.5\ngini = 0.143\nsamples = 3685\nvalue = [286, 3399]"] ;
361 -> 447 ;
448 [label="case_month_29 <= 0.5\ngini = 0.124\nsamples = 3354\nvalue = [223, 3131]"] ;
447 -> 448 ;
449 [label="symptom_status_-1 <= 0.5\ngini = 0.12\nsamples = 3335\nvalue = [214, 3121]"] ;
448 -> 449 ;
450 [label="icu_yn_-1 <= 0.5\ngini = 0.167\nsamples = 1592\nvalue = [146, 1446]"] ;
449 -> 450 ;
451 [label="case_month_9 <= 0.5\ngini = 0.045\nsamples = 346\nvalue = [8, 338]"] ;
450 -> 451 ;
452 [label="res_region_1 <= 0.5\ngini = 0.04\nsamples = 343\nvalue = [7, 336]"] ;
451 -> 452 ;
453 [label="case_month_3 <= 0.5\ngini = 0.026\nsamples = 308\nvalue = [4, 304]"] ;
452 -> 453 ;
454 [label="gini = 0.02\nsamples = 293\nvalue = [3, 290]"] ;
453 -> 454 ;
455 [label="gini = 0.124\nsamples = 15\nvalue = [1, 14]"] ;
453 -> 455 ;
456 [label="case_month_8 <= 0.5\ngini = 0.157\nsamples = 35\nvalue = [3, 32]"] ;
452 -> 456 ;
457 [label="gini = 0.111\nsamples = 34\nvalue = [2, 32]"] ;
456 -> 457 ;
458 [label="gini = 0.0\nsamples = 1\nvalue = [1, 0]"] ;
456 -> 458 ;
459 [label="gini = 0.444\nsamples = 3\nvalue = [1, 2]"] ;
451 -> 459 ;
460 [label="case_month_4 <= 0.5\ngini = 0.197\nsamples = 1246\nvalue = [138, 1108]"] ;
450 -> 460 ;
461 [label="res_region_2 <= 0.5\ngini = 0.218\nsamples = 1083\nvalue = [135, 948]"] ;
460 -> 461 ;
462 [label="case_month_34 <= 0.5\ngini = 0.185\nsamples = 822\nvalue = [85, 737]"] ;
461 -> 462 ;
463 [label="gini = 0.182\nsamples = 820\nvalue = [83, 737]"] ;
462 -> 463 ;
464 [label="gini = 0.0\nsamples = 2\nvalue = [2, 0]"] ;
462 -> 464 ;
465 [label="case_month_3 <= 0.5\ngini = 0.31\nsamples = 261\nvalue = [50, 211]"] ;
461 -> 465 ;
466 [label="gini = 0.348\nsamples = 214\nvalue = [48, 166]"] ;
465 -> 466 ;
467 [label="gini = 0.081\nsamples = 47\nvalue = [2, 45]"] ;
465 -> 467 ;
468 [label="res_region_2 <= 0.5\ngini = 0.036\nsamples = 163\nvalue = [3, 160]"] ;
460 -> 468 ;
469 [label="gini = 0.0\nsamples = 53\nvalue = [0, 53]"] ;
468 -> 469 ;
470 [label="underlying_conditions_yn_-1 <= 0.5\ngini = 0.053\nsamples = 110\nvalue = [3, 107]"] ;
468 -> 470 ;
471 [label="gini = 0.0\nsamples = 8\nvalue = [0, 8]"] ;
470 -> 471 ;
472 [label="gini = 0.057\nsamples = 102\nvalue = [3, 99]"] ;
470 -> 472 ;
473 [label="case_month_16 <= 0.5\ngini = 0.075\nsamples = 1743\nvalue = [68, 1675]"] ;
449 -> 473 ;
474 [label="res_region_3 <= 0.5\ngini = 0.071\nsamples = 1727\nvalue = [64, 1663]"] ;
473 -> 474 ;
475 [label="underlying_conditions_yn_-1 <= 0.5\ngini = 0.091\nsamples = 1256\nvalue = [60, 1196]"] ;
474 -> 475 ;
476 [label="gini = 0.0\nsamples = 203\nvalue = [0, 203]"] ;
475 -> 476 ;
477 [label="case_month_30 <= 0.5\ngini = 0.107\nsamples = 1053\nvalue = [60, 993]"] ;
475 -> 477 ;
478 [label="gini = 0.105\nsamples = 1047\nvalue = [58, 989]"] ;
477 -> 478 ;
479 [label="gini = 0.444\nsamples = 6\nvalue = [2, 4]"] ;
477 -> 479 ;
480 [label="case_month_26 <= 0.5\ngini = 0.017\nsamples = 471\nvalue = [4, 467]"] ;
474 -> 480 ;
481 [label="case_month_6 <= 0.5\ngini = 0.013\nsamples = 462\nvalue = [3, 459]"] ;
480 -> 481 ;
482 [label="gini = 0.009\nsamples = 448\nvalue = [2, 446]"] ;
481 -> 482 ;
483 [label="gini = 0.133\nsamples = 14\nvalue = [1, 13]"] ;
481 -> 483 ;
484 [label="current_status_0 <= 0.5\ngini = 0.198\nsamples = 9\nvalue = [1, 8]"] ;
480 -> 484 ;
485 [label="gini = 0.0\nsamples = 1\nvalue = [0, 1]"] ;
484 -> 485 ;
486 [label="gini = 0.219\nsamples = 8\nvalue = [1, 7]"] ;
484 -> 486 ;
487 [label="res_region_4 <= 0.5\ngini = 0.375\nsamples = 16\nvalue = [4, 12]"] ;
473 -> 487 ;
488 [label="res_region_3 <= 0.5\ngini = 0.298\nsamples = 11\nvalue = [2, 9]"] ;
487 -> 488 ;
489 [label="underlying_conditions_yn_-1 <= 0.5\ngini = 0.219\nsamples = 8\nvalue = [1, 7]"] ;
488 -> 489 ;
490 [label="gini = 0.0\nsamples = 2\nvalue = [0, 2]"] ;
489 -> 490 ;
491 [label="gini = 0.278\nsamples = 6\nvalue = [1, 5]"] ;
489 -> 491 ;
492 [label="gini = 0.444\nsamples = 3\nvalue = [1, 2]"] ;
488 -> 492 ;
493 [label="icu_yn_-1 <= 0.5\ngini = 0.48\nsamples = 5\nvalue = [2, 3]"] ;
487 -> 493 ;
494 [label="gini = 0.0\nsamples = 1\nvalue = [0, 1]"] ;
493 -> 494 ;
495 [label="gini = 0.5\nsamples = 4\nvalue = [2, 2]"] ;
493 -> 495 ;
496 [label="icu_yn_-1 <= 0.5\ngini = 0.499\nsamples = 19\nvalue = [9, 10]"] ;
448 -> 496 ;
497 [label="gini = 0.0\nsamples = 3\nvalue = [0, 3]"] ;
496 -> 497 ;
498 [label="symptom_status_-1 <= 0.5\ngini = 0.492\nsamples = 16\nvalue = [9, 7]"] ;
496 -> 498 ;
499 [label="res_region_1 <= 0.5\ngini = 0.375\nsamples = 8\nvalue = [6, 2]"] ;
498 -> 499 ;
500 [label="res_region_3 <= 0.5\ngini = 0.245\nsamples = 7\nvalue = [6, 1]"] ;
499 -> 500 ;
501 [label="current_status_0 <= 0.5\ngini = 0.32\nsamples = 5\nvalue = [4, 1]"] ;
500 -> 501 ;
502 [label="gini = 0.0\nsamples = 1\nvalue = [1, 0]"] ;
501 -> 502 ;
503 [label="gini = 0.375\nsamples = 4\nvalue = [3, 1]"] ;
501 -> 503 ;
504 [label="gini = 0.0\nsamples = 2\nvalue = [2, 0]"] ;
500 -> 504 ;
505 [label="gini = 0.0\nsamples = 1\nvalue = [0, 1]"] ;
499 -> 505 ;
506 [label="res_region_4 <= 0.5\ngini = 0.469\nsamples = 8\nvalue = [3, 5]"] ;
498 -> 506 ;
507 [label="res_region_1 <= 0.5\ngini = 0.278\nsamples = 6\nvalue = [1, 5]"] ;
506 -> 507 ;
508 [label="gini = 0.0\nsamples = 4\nvalue = [0, 4]"] ;
507 -> 508 ;
509 [label="gini = 0.5\nsamples = 2\nvalue = [1, 1]"] ;
507 -> 509 ;
510 [label="gini = 0.0\nsamples = 2\nvalue = [2, 0]"] ;
506 -> 510 ;
511 [label="res_region_4 <= 0.5\ngini = 0.308\nsamples = 331\nvalue = [63, 268]"] ;
447 -> 511 ;
512 [label="res_region_1 <= 0.5\ngini = 0.246\nsamples = 244\nvalue = [35, 209]"] ;
511 -> 512 ;
513 [label="case_month_5 <= 0.5\ngini = 0.2\nsamples = 204\nvalue = [23, 181]"] ;
512 -> 513 ;
514 [label="case_month_10 <= 0.5\ngini = 0.181\nsamples = 199\nvalue = [20, 179]"] ;
513 -> 514 ;
515 [label="case_month_29 <= 0.5\ngini = 0.161\nsamples = 193\nvalue = [17, 176]"] ;
514 -> 515 ;
516 [label="case_month_27 <= 0.5\ngini = 0.145\nsamples = 190\nvalue = [15, 175]"] ;
515 -> 516 ;
517 [label="gini = 0.137\nsamples = 189\nvalue = [14, 175]"] ;
516 -> 517 ;
518 [label="gini = 0.0\nsamples = 1\nvalue = [1, 0]"] ;
516 -> 518 ;
519 [label="underlying_conditions_yn_1 <= 0.5\ngini = 0.444\nsamples = 3\nvalue = [2, 1]"] ;
515 -> 519 ;
520 [label="gini = 0.0\nsamples = 1\nvalue = [1, 0]"] ;
519 -> 520 ;
521 [label="gini = 0.5\nsamples = 2\nvalue = [1, 1]"] ;
519 -> 521 ;
522 [label="underlying_conditions_yn_1 <= 0.5\ngini = 0.5\nsamples = 6\nvalue = [3, 3]"] ;
514 -> 522 ;
523 [label="gini = 0.0\nsamples = 1\nvalue = [0, 1]"] ;
522 -> 523 ;
524 [label="res_region_2 <= 0.5\ngini = 0.48\nsamples = 5\nvalue = [3, 2]"] ;
522 -> 524 ;
525 [label="gini = 0.444\nsamples = 3\nvalue = [2, 1]"] ;
524 -> 525 ;
526 [label="gini = 0.5\nsamples = 2\nvalue = [1, 1]"] ;
524 -> 526 ;
527 [label="underlying_conditions_yn_1 <= 0.5\ngini = 0.48\nsamples = 5\nvalue = [3, 2]"] ;
513 -> 527 ;
528 [label="gini = 0.0\nsamples = 2\nvalue = [2, 0]"] ;
527 -> 528 ;
529 [label="symptom_status_0 <= 0.5\ngini = 0.444\nsamples = 3\nvalue = [1, 2]"] ;
527 -> 529 ;
530 [label="gini = 0.0\nsamples = 2\nvalue = [0, 2]"] ;
529 -> 530 ;
531 [label="gini = 0.0\nsamples = 1\nvalue = [1, 0]"] ;
529 -> 531 ;
532 [label="case_month_22 <= 0.5\ngini = 0.42\nsamples = 40\nvalue = [12, 28]"] ;
512 -> 532 ;
533 [label="case_month_25 <= 0.5\ngini = 0.388\nsamples = 38\nvalue = [10, 28]"] ;
532 -> 533 ;
534 [label="symptom_status_1 <= 0.5\ngini = 0.437\nsamples = 31\nvalue = [10, 21]"] ;
533 -> 534 ;
535 [label="gini = 0.0\nsamples = 6\nvalue = [0, 6]"] ;
534 -> 535 ;
536 [label="underlying_conditions_yn_1 <= 0.5\ngini = 0.48\nsamples = 25\nvalue = [10, 15]"] ;
534 -> 536 ;
537 [label="gini = 0.444\nsamples = 6\nvalue = [4, 2]"] ;
536 -> 537 ;
538 [label="gini = 0.432\nsamples = 19\nvalue = [6, 13]"] ;
536 -> 538 ;
539 [label="gini = 0.0\nsamples = 7\nvalue = [0, 7]"] ;
533 -> 539 ;
540 [label="gini = 0.0\nsamples = 2\nvalue = [2, 0]"] ;
532 -> 540 ;
541 [label="case_month_13 <= 0.5\ngini = 0.437\nsamples = 87\nvalue = [28, 59]"] ;
511 -> 541 ;
542 [label="case_month_20 <= 0.5\ngini = 0.41\nsamples = 80\nvalue = [23, 57]"] ;
541 -> 542 ;
543 [label="underlying_conditions_yn_-1 <= 0.5\ngini = 0.393\nsamples = 78\nvalue = [21, 57]"] ;
542 -> 543 ;
544 [label="case_month_19 <= 0.5\ngini = 0.315\nsamples = 46\nvalue = [9, 37]"] ;
543 -> 544 ;
545 [label="case_month_3 <= 0.5\ngini = 0.292\nsamples = 45\nvalue = [8, 37]"] ;
544 -> 545 ;
546 [label="gini = 0.268\nsamples = 44\nvalue = [7, 37]"] ;
545 -> 546 ;
547 [label="gini = 0.0\nsamples = 1\nvalue = [1, 0]"] ;
545 -> 547 ;
548 [label="gini = 0.0\nsamples = 1\nvalue = [1, 0]"] ;
544 -> 548 ;
549 [label="case_month_23 <= 0.5\ngini = 0.469\nsamples = 32\nvalue = [12, 20]"] ;
543 -> 549 ;
550 [label="case_month_10 <= 0.5\ngini = 0.444\nsamples = 30\nvalue = [10, 20]"] ;
549 -> 550 ;
551 [label="gini = 0.473\nsamples = 26\nvalue = [10, 16]"] ;
550 -> 551 ;
552 [label="gini = 0.0\nsamples = 4\nvalue = [0, 4]"] ;
550 -> 552 ;
553 [label="gini = 0.0\nsamples = 2\nvalue = [2, 0]"] ;
549 -> 553 ;
554 [label="gini = 0.0\nsamples = 2\nvalue = [2, 0]"] ;
542 -> 554 ;
555 [label="underlying_conditions_yn_-1 <= 0.5\ngini = 0.408\nsamples = 7\nvalue = [5, 2]"] ;
541 -> 555 ;
556 [label="gini = 0.375\nsamples = 4\nvalue = [3, 1]"] ;
555 -> 556 ;
557 [label="gini = 0.444\nsamples = 3\nvalue = [2, 1]"] ;
555 -> 557 ;
558 [label="case_month_4 <= 0.5\ngini = 0.47\nsamples = 2301\nvalue = [1430, 871]"] ;
360 -> 558 ;
559 [label="res_region_3 <= 0.5\ngini = 0.455\nsamples = 2167\nvalue = [1410, 757]"] ;
558 -> 559 ;
560 [label="res_region_2 <= 0.5\ngini = 0.413\nsamples = 1724\nvalue = [1222, 502]"] ;
559 -> 560 ;
561 [label="case_month_12 <= 0.5\ngini = 0.443\nsamples = 1288\nvalue = [862, 426]"] ;
560 -> 561 ;
562 [label="symptom_status_1 <= 0.5\ngini = 0.431\nsamples = 1137\nvalue = [780, 357]"] ;
561 -> 562 ;
563 [label="underlying_conditions_yn_1 <= 0.5\ngini = 0.464\nsamples = 547\nvalue = [347, 200]"] ;
562 -> 563 ;
564 [label="case_month_20 <= 0.5\ngini = 0.455\nsamples = 508\nvalue = [330, 178]"] ;
563 -> 564 ;
565 [label="case_month_10 <= 0.5\ngini = 0.446\nsamples = 476\nvalue = [316, 160]"] ;
564 -> 565 ;
566 [label="gini = 0.434\nsamples = 439\nvalue = [299, 140]"] ;
565 -> 566 ;
567 [label="gini = 0.497\nsamples = 37\nvalue = [17, 20]"] ;
565 -> 567 ;
568 [label="res_region_4 <= 0.5\ngini = 0.492\nsamples = 32\nvalue = [14, 18]"] ;
564 -> 568 ;
569 [label="gini = 0.351\nsamples = 22\nvalue = [5, 17]"] ;
568 -> 569 ;
570 [label="gini = 0.18\nsamples = 10\nvalue = [9, 1]"] ;
568 -> 570 ;
571 [label="case_month_11 <= 0.5\ngini = 0.492\nsamples = 39\nvalue = [17, 22]"] ;
563 -> 571 ;
572 [label="res_region_1 <= 0.5\ngini = 0.495\nsamples = 29\nvalue = [16, 13]"] ;
571 -> 572 ;
573 [label="gini = 0.375\nsamples = 8\nvalue = [2, 6]"] ;
572 -> 573 ;
574 [label="gini = 0.444\nsamples = 21\nvalue = [14, 7]"] ;
572 -> 574 ;
575 [label="icu_yn_-1 <= 0.5\ngini = 0.18\nsamples = 10\nvalue = [1, 9]"] ;
571 -> 575 ;
576 [label="gini = 0.5\nsamples = 2\nvalue = [1, 1]"] ;
575 -> 576 ;
577 [label="gini = 0.0\nsamples = 8\nvalue = [0, 8]"] ;
575 -> 577 ;
578 [label="case_month_5 <= 0.5\ngini = 0.391\nsamples = 590\nvalue = [433, 157]"] ;
562 -> 578 ;
579 [label="case_month_20 <= 0.5\ngini = 0.383\nsamples = 577\nvalue = [428, 149]"] ;
578 -> 579 ;
580 [label="case_month_11 <= 0.5\ngini = 0.373\nsamples = 549\nvalue = [413, 136]"] ;
579 -> 580 ;
581 [label="gini = 0.355\nsamples = 490\nvalue = [377, 113]"] ;
580 -> 581 ;
582 [label="gini = 0.476\nsamples = 59\nvalue = [36, 23]"] ;
580 -> 582 ;
583 [label="icu_yn_0 <= 0.5\ngini = 0.497\nsamples = 28\nvalue = [15, 13]"] ;
579 -> 583 ;
584 [label="gini = 0.499\nsamples = 25\nvalue = [12, 13]"] ;
583 -> 584 ;
585 [label="gini = 0.0\nsamples = 3\nvalue = [3, 0]"] ;
583 -> 585 ;
586 [label="res_region_4 <= 0.5\ngini = 0.473\nsamples = 13\nvalue = [5, 8]"] ;
578 -> 586 ;
587 [label="underlying_conditions_yn_-1 <= 0.5\ngini = 0.494\nsamples = 9\nvalue = [4, 5]"] ;
586 -> 587 ;
588 [label="gini = 0.0\nsamples = 1\nvalue = [0, 1]"] ;
587 -> 588 ;
589 [label="gini = 0.5\nsamples = 8\nvalue = [4, 4]"] ;
587 -> 589 ;
590 [label="underlying_conditions_yn_1 <= 0.5\ngini = 0.375\nsamples = 4\nvalue = [1, 3]"] ;
586 -> 590 ;
591 [label="gini = 0.0\nsamples = 2\nvalue = [0, 2]"] ;
590 -> 591 ;
592 [label="gini = 0.5\nsamples = 2\nvalue = [1, 1]"] ;
590 -> 592 ;
593 [label="current_status_1 <= 0.5\ngini = 0.496\nsamples = 151\nvalue = [82, 69]"] ;
561 -> 593 ;
594 [label="icu_yn_0 <= 0.5\ngini = 0.486\nsamples = 118\nvalue = [69, 49]"] ;
593 -> 594 ;
595 [label="res_region_4 <= 0.5\ngini = 0.49\nsamples = 112\nvalue = [64, 48]"] ;
594 -> 595 ;
596 [label="symptom_status_1 <= 0.5\ngini = 0.473\nsamples = 65\nvalue = [40, 25]"] ;
595 -> 596 ;
597 [label="gini = 0.423\nsamples = 23\nvalue = [16, 7]"] ;
596 -> 597 ;
598 [label="gini = 0.49\nsamples = 42\nvalue = [24, 18]"] ;
596 -> 598 ;
599 [label="underlying_conditions_yn_-1 <= 0.5\ngini = 0.5\nsamples = 47\nvalue = [24, 23]"] ;
595 -> 599 ;
600 [label="gini = 0.494\nsamples = 9\nvalue = [4, 5]"] ;
599 -> 600 ;
601 [label="gini = 0.499\nsamples = 38\nvalue = [20, 18]"] ;
599 -> 601 ;
602 [label="symptom_status_0 <= 0.5\ngini = 0.278\nsamples = 6\nvalue = [5, 1]"] ;
594 -> 602 ;
603 [label="gini = 0.0\nsamples = 5\nvalue = [5, 0]"] ;
602 -> 603 ;
604 [label="gini = 0.0\nsamples = 1\nvalue = [0, 1]"] ;
602 -> 604 ;
605 [label="symptom_status_-1 <= 0.5\ngini = 0.478\nsamples = 33\nvalue = [13, 20]"] ;
593 -> 605 ;
606 [label="underlying_conditions_yn_1 <= 0.5\ngini = 0.5\nsamples = 24\nvalue = [12, 12]"] ;
605 -> 606 ;
607 [label="icu_yn_-1 <= 0.5\ngini = 0.475\nsamples = 18\nvalue = [11, 7]"] ;
606 -> 607 ;
608 [label="gini = 0.0\nsamples = 1\nvalue = [0, 1]"] ;
607 -> 608 ;
609 [label="gini = 0.457\nsamples = 17\nvalue = [11, 6]"] ;
607 -> 609 ;
610 [label="icu_yn_0 <= 0.5\ngini = 0.278\nsamples = 6\nvalue = [1, 5]"] ;
606 -> 610 ;
611 [label="gini = 0.0\nsamples = 4\nvalue = [0, 4]"] ;
610 -> 611 ;
612 [label="gini = 0.5\nsamples = 2\nvalue = [1, 1]"] ;
610 -> 612 ;
613 [label="res_region_4 <= 0.5\ngini = 0.198\nsamples = 9\nvalue = [1, 8]"] ;
605 -> 613 ;
614 [label="gini = 0.375\nsamples = 4\nvalue = [1, 3]"] ;
613 -> 614 ;
615 [label="gini = 0.0\nsamples = 5\nvalue = [0, 5]"] ;
613 -> 615 ;
616 [label="case_month_5 <= 0.5\ngini = 0.288\nsamples = 436\nvalue = [360, 76]"] ;
560 -> 616 ;
617 [label="case_month_12 <= 0.5\ngini = 0.258\nsamples = 415\nvalue = [352, 63]"] ;
616 -> 617 ;
618 [label="case_month_3 <= 0.5\ngini = 0.218\nsamples = 385\nvalue = [337, 48]"] ;
617 -> 618 ;
619 [label="case_month_11 <= 0.5\ngini = 0.203\nsamples = 376\nvalue = [333, 43]"] ;
618 -> 619 ;
620 [label="case_month_8 <= 0.5\ngini = 0.18\nsamples = 350\nvalue = [315, 35]"] ;
619 -> 620 ;
621 [label="gini = 0.176\nsamples = 349\nvalue = [315, 34]"] ;
620 -> 621 ;
622 [label="gini = 0.0\nsamples = 1\nvalue = [0, 1]"] ;
620 -> 622 ;
623 [label="symptom_status_-1 <= 0.5\ngini = 0.426\nsamples = 26\nvalue = [18, 8]"] ;
619 -> 623 ;
624 [label="gini = 0.472\nsamples = 21\nvalue = [13, 8]"] ;
623 -> 624 ;
625 [label="gini = 0.0\nsamples = 5\nvalue = [5, 0]"] ;
623 -> 625 ;
626 [label="underlying_conditions_yn_1 <= 0.5\ngini = 0.494\nsamples = 9\nvalue = [4, 5]"] ;
618 -> 626 ;
627 [label="symptom_status_-1 <= 0.5\ngini = 0.408\nsamples = 7\nvalue = [2, 5]"] ;
626 -> 627 ;
628 [label="gini = 0.444\nsamples = 6\nvalue = [2, 4]"] ;
627 -> 628 ;
629 [label="gini = 0.0\nsamples = 1\nvalue = [0, 1]"] ;
627 -> 629 ;
630 [label="gini = 0.0\nsamples = 2\nvalue = [2, 0]"] ;
626 -> 630 ;
631 [label="current_status_0 <= 0.5\ngini = 0.5\nsamples = 30\nvalue = [15, 15]"] ;
617 -> 631 ;
632 [label="symptom_status_1 <= 0.5\ngini = 0.278\nsamples = 6\nvalue = [1, 5]"] ;
631 -> 632 ;
633 [label="gini = 0.0\nsamples = 1\nvalue = [0, 1]"] ;
632 -> 633 ;
634 [label="gini = 0.32\nsamples = 5\nvalue = [1, 4]"] ;
632 -> 634 ;
635 [label="symptom_status_-1 <= 0.5\ngini = 0.486\nsamples = 24\nvalue = [14, 10]"] ;
631 -> 635 ;
636 [label="underlying_conditions_yn_1 <= 0.5\ngini = 0.498\nsamples = 15\nvalue = [7, 8]"] ;
635 -> 636 ;
637 [label="gini = 0.5\nsamples = 14\nvalue = [7, 7]"] ;
636 -> 637 ;
638 [label="gini = 0.0\nsamples = 1\nvalue = [0, 1]"] ;
636 -> 638 ;
639 [label="gini = 0.346\nsamples = 9\nvalue = [7, 2]"] ;
635 -> 639 ;
640 [label="icu_yn_0 <= 0.5\ngini = 0.472\nsamples = 21\nvalue = [8, 13]"] ;
616 -> 640 ;
641 [label="underlying_conditions_yn_1 <= 0.5\ngini = 0.455\nsamples = 20\nvalue = [7, 13]"] ;
640 -> 641 ;
642 [label="symptom_status_-1 <= 0.5\ngini = 0.444\nsamples = 18\nvalue = [6, 12]"] ;
641 -> 642 ;
643 [label="gini = 0.42\nsamples = 10\nvalue = [3, 7]"] ;
642 -> 643 ;
644 [label="current_status_1 <= 0.5\ngini = 0.469\nsamples = 8\nvalue = [3, 5]"] ;
642 -> 644 ;
645 [label="gini = 0.48\nsamples = 5\nvalue = [2, 3]"] ;
644 -> 645 ;
646 [label="gini = 0.444\nsamples = 3\nvalue = [1, 2]"] ;
644 -> 646 ;
647 [label="gini = 0.5\nsamples = 2\nvalue = [1, 1]"] ;
641 -> 647 ;
648 [label="gini = 0.0\nsamples = 1\nvalue = [1, 0]"] ;
640 -> 648 ;
649 [label="symptom_status_1 <= 0.5\ngini = 0.489\nsamples = 443\nvalue = [188, 255]"] ;
559 -> 649 ;
650 [label="icu_yn_-1 <= 0.5\ngini = 0.306\nsamples = 170\nvalue = [32, 138]"] ;
649 -> 650 ;
651 [label="case_month_7 <= 0.5\ngini = 0.469\nsamples = 8\nvalue = [5, 3]"] ;
650 -> 651 ;
652 [label="case_month_20 <= 0.5\ngini = 0.278\nsamples = 6\nvalue = [5, 1]"] ;
651 -> 652 ;
653 [label="gini = 0.0\nsamples = 5\nvalue = [5, 0]"] ;
652 -> 653 ;
654 [label="gini = 0.0\nsamples = 1\nvalue = [0, 1]"] ;
652 -> 654 ;
655 [label="gini = 0.0\nsamples = 2\nvalue = [0, 2]"] ;
651 -> 655 ;
656 [label="case_month_19 <= 0.5\ngini = 0.278\nsamples = 162\nvalue = [27, 135]"] ;
650 -> 656 ;
657 [label="case_month_25 <= 0.5\ngini = 0.264\nsamples = 160\nvalue = [25, 135]"] ;
656 -> 657 ;
658 [label="case_month_22 <= 0.5\ngini = 0.232\nsamples = 149\nvalue = [20, 129]"] ;
657 -> 658 ;
659 [label="case_month_31 <= 0.5\ngini = 0.208\nsamples = 144\nvalue = [17, 127]"] ;
658 -> 659 ;
660 [label="gini = 0.181\nsamples = 139\nvalue = [14, 125]"] ;
659 -> 660 ;
661 [label="gini = 0.48\nsamples = 5\nvalue = [3, 2]"] ;
659 -> 661 ;
662 [label="current_status_1 <= 0.5\ngini = 0.48\nsamples = 5\nvalue = [3, 2]"] ;
658 -> 662 ;
663 [label="gini = 0.5\nsamples = 4\nvalue = [2, 2]"] ;
662 -> 663 ;
664 [label="gini = 0.0\nsamples = 1\nvalue = [1, 0]"] ;
662 -> 664 ;
665 [label="current_status_1 <= 0.5\ngini = 0.496\nsamples = 11\nvalue = [5, 6]"] ;
657 -> 665 ;
666 [label="gini = 0.48\nsamples = 10\nvalue = [4, 6]"] ;
665 -> 666 ;
667 [label="gini = 0.0\nsamples = 1\nvalue = [1, 0]"] ;
665 -> 667 ;
668 [label="gini = 0.0\nsamples = 2\nvalue = [2, 0]"] ;
656 -> 668 ;
669 [label="case_month_12 <= 0.5\ngini = 0.49\nsamples = 273\nvalue = [156, 117]"] ;
649 -> 669 ;
670 [label="case_month_13 <= 0.5\ngini = 0.474\nsamples = 236\nvalue = [145, 91]"] ;
669 -> 670 ;
671 [label="case_month_11 <= 0.5\ngini = 0.461\nsamples = 214\nvalue = [137, 77]"] ;
670 -> 671 ;
672 [label="case_month_7 <= 0.5\ngini = 0.441\nsamples = 180\nvalue = [121, 59]"] ;
671 -> 672 ;
673 [label="case_month_8 <= 0.5\ngini = 0.427\nsamples = 168\nvalue = [116, 52]"] ;
672 -> 673 ;
674 [label="gini = 0.419\nsamples = 164\nvalue = [115, 49]"] ;
673 -> 674 ;
675 [label="gini = 0.375\nsamples = 4\nvalue = [1, 3]"] ;
673 -> 675 ;
676 [label="icu_yn_-1 <= 0.5\ngini = 0.486\nsamples = 12\nvalue = [5, 7]"] ;
672 -> 676 ;
677 [label="gini = 0.444\nsamples = 3\nvalue = [2, 1]"] ;
676 -> 677 ;
678 [label="gini = 0.444\nsamples = 9\nvalue = [3, 6]"] ;
676 -> 678 ;
679 [label="current_status_0 <= 0.5\ngini = 0.498\nsamples = 34\nvalue = [16, 18]"] ;
671 -> 679 ;
680 [label="gini = 0.0\nsamples = 1\nvalue = [0, 1]"] ;
679 -> 680 ;
681 [label="icu_yn_-1 <= 0.5\ngini = 0.5\nsamples = 33\nvalue = [16, 17]"] ;
679 -> 681 ;
682 [label="gini = 0.48\nsamples = 5\nvalue = [3, 2]"] ;
681 -> 682 ;
683 [label="gini = 0.497\nsamples = 28\nvalue = [13, 15]"] ;
681 -> 683 ;
684 [label="icu_yn_-1 <= 0.5\ngini = 0.463\nsamples = 22\nvalue = [8, 14]"] ;
670 -> 684 ;
685 [label="underlying_conditions_yn_-1 <= 0.5\ngini = 0.49\nsamples = 7\nvalue = [4, 3]"] ;
684 -> 685 ;
686 [label="gini = 0.0\nsamples = 2\nvalue = [0, 2]"] ;
685 -> 686 ;
687 [label="gini = 0.32\nsamples = 5\nvalue = [4, 1]"] ;
685 -> 687 ;
688 [label="current_status_1 <= 0.5\ngini = 0.391\nsamples = 15\nvalue = [4, 11]"] ;
684 -> 688 ;
689 [label="underlying_conditions_yn_1 <= 0.5\ngini = 0.355\nsamples = 13\nvalue = [3, 10]"] ;
688 -> 689 ;
690 [label="gini = 0.32\nsamples = 10\nvalue = [2, 8]"] ;
689 -> 690 ;
691 [label="gini = 0.444\nsamples = 3\nvalue = [1, 2]"] ;
689 -> 691 ;
692 [label="gini = 0.5\nsamples = 2\nvalue = [1, 1]"] ;
688 -> 692 ;
693 [label="icu_yn_0 <= 0.5\ngini = 0.418\nsamples = 37\nvalue = [11, 26]"] ;
669 -> 693 ;
694 [label="underlying_conditions_yn_-1 <= 0.5\ngini = 0.334\nsamples = 33\nvalue = [7, 26]"] ;
693 -> 694 ;
695 [label="current_status_0 <= 0.5\ngini = 0.219\nsamples = 8\nvalue = [1, 7]"] ;
694 -> 695 ;
696 [label="gini = 0.0\nsamples = 1\nvalue = [0, 1]"] ;
695 -> 696 ;
697 [label="gini = 0.245\nsamples = 7\nvalue = [1, 6]"] ;
695 -> 697 ;
698 [label="current_status_1 <= 0.5\ngini = 0.365\nsamples = 25\nvalue = [6, 19]"] ;
694 -> 698 ;
699 [label="gini = 0.351\nsamples = 22\nvalue = [5, 17]"] ;
698 -> 699 ;
700 [label="gini = 0.444\nsamples = 3\nvalue = [1, 2]"] ;
698 -> 700 ;
701 [label="gini = 0.0\nsamples = 4\nvalue = [4, 0]"] ;
693 -> 701 ;
702 [label="res_region_1 <= 0.5\ngini = 0.254\nsamples = 134\nvalue = [20, 114]"] ;
558 -> 702 ;
703 [label="symptom_status_1 <= 0.5\ngini = 0.188\nsamples = 114\nvalue = [12, 102]"] ;
702 -> 703 ;
704 [label="res_region_4 <= 0.5\ngini = 0.095\nsamples = 40\nvalue = [2, 38]"] ;
703 -> 704 ;
705 [label="underlying_conditions_yn_1 <= 0.5\ngini = 0.124\nsamples = 30\nvalue = [2, 28]"] ;
704 -> 705 ;
706 [label="current_status_1 <= 0.5\ngini = 0.137\nsamples = 27\nvalue = [2, 25]"] ;
705 -> 706 ;
707 [label="res_region_2 <= 0.5\ngini = 0.153\nsamples = 24\nvalue = [2, 22]"] ;
706 -> 707 ;
708 [label="gini = 0.165\nsamples = 11\nvalue = [1, 10]"] ;
707 -> 708 ;
709 [label="gini = 0.142\nsamples = 13\nvalue = [1, 12]"] ;
707 -> 709 ;
710 [label="gini = 0.0\nsamples = 3\nvalue = [0, 3]"] ;
706 -> 710 ;
711 [label="gini = 0.0\nsamples = 3\nvalue = [0, 3]"] ;
705 -> 711 ;
712 [label="gini = 0.0\nsamples = 10\nvalue = [0, 10]"] ;
704 -> 712 ;
713 [label="icu_yn_0 <= 0.5\ngini = 0.234\nsamples = 74\nvalue = [10, 64]"] ;
703 -> 713 ;
714 [label="res_region_3 <= 0.5\ngini = 0.266\nsamples = 57\nvalue = [9, 48]"] ;
713 -> 714 ;
715 [label="res_region_4 <= 0.5\ngini = 0.287\nsamples = 46\nvalue = [8, 38]"] ;
714 -> 715 ;
716 [label="underlying_conditions_yn_-1 <= 0.5\ngini = 0.272\nsamples = 37\nvalue = [6, 31]"] ;
715 -> 716 ;
717 [label="gini = 0.0\nsamples = 3\nvalue = [0, 3]"] ;
716 -> 717 ;
718 [label="current_status_1 <= 0.5\ngini = 0.291\nsamples = 34\nvalue = [6, 28]"] ;
716 -> 718 ;
719 [label="gini = 0.285\nsamples = 29\nvalue = [5, 24]"] ;
718 -> 719 ;
720 [label="gini = 0.32\nsamples = 5\nvalue = [1, 4]"] ;
718 -> 720 ;
721 [label="underlying_conditions_yn_1 <= 0.5\ngini = 0.346\nsamples = 9\nvalue = [2, 7]"] ;
715 -> 721 ;
722 [label="gini = 0.0\nsamples = 2\nvalue = [0, 2]"] ;
721 -> 722 ;
723 [label="gini = 0.408\nsamples = 7\nvalue = [2, 5]"] ;
721 -> 723 ;
724 [label="underlying_conditions_yn_-1 <= 0.5\ngini = 0.165\nsamples = 11\nvalue = [1, 10]"] ;
714 -> 724 ;
725 [label="gini = 0.0\nsamples = 2\nvalue = [0, 2]"] ;
724 -> 725 ;
726 [label="current_status_0 <= 0.5\ngini = 0.198\nsamples = 9\nvalue = [1, 8]"] ;
724 -> 726 ;
727 [label="gini = 0.0\nsamples = 1\nvalue = [0, 1]"] ;
726 -> 727 ;
728 [label="gini = 0.219\nsamples = 8\nvalue = [1, 7]"] ;
726 -> 728 ;
729 [label="res_region_2 <= 0.5\ngini = 0.111\nsamples = 17\nvalue = [1, 16]"] ;
713 -> 729 ;
730 [label="gini = 0.0\nsamples = 5\nvalue = [0, 5]"] ;
729 -> 730 ;
731 [label="underlying_conditions_yn_-1 <= 0.5\ngini = 0.153\nsamples = 12\nvalue = [1, 11]"] ;
729 -> 731 ;
732 [label="gini = 0.18\nsamples = 10\nvalue = [1, 9]"] ;
731 -> 732 ;
733 [label="gini = 0.0\nsamples = 2\nvalue = [0, 2]"] ;
731 -> 733 ;
734 [label="symptom_status_1 <= 0.5\ngini = 0.48\nsamples = 20\nvalue = [8, 12]"] ;
702 -> 734 ;
735 [label="symptom_status_0 <= 0.5\ngini = 0.444\nsamples = 9\nvalue = [6, 3]"] ;
734 -> 735 ;
736 [label="gini = 0.49\nsamples = 7\nvalue = [4, 3]"] ;
735 -> 736 ;
737 [label="gini = 0.0\nsamples = 2\nvalue = [2, 0]"] ;
735 -> 737 ;
738 [label="current_status_0 <= 0.5\ngini = 0.298\nsamples = 11\nvalue = [2, 9]"] ;
734 -> 738 ;
739 [label="gini = 0.0\nsamples = 1\nvalue = [0, 1]"] ;
738 -> 739 ;
740 [label="gini = 0.32\nsamples = 10\nvalue = [2, 8]"] ;
738 -> 740 ;
}